Language model created by QuickLM on Fri Oct 24 00:43:32 EDT 2014
Copyright (c) 1996-2010 Carnegie Mellon University and Alexander I. Rudnicky

The model is in standard ARPA format, designed by Doug Paul while he was at MITRE.

The code that was used to produce this language model is available in Open Source.
Please visit http://www.speech.cs.cmu.edu/tools/ for more information

The (fixed) discount mass is 0.5. The backoffs are computed using the ratio method.
This model based on a corpus of 3 sentences and 5 words

\data\
ngram 1=5
ngram 2=6
ngram 3=3

\1-grams:
-0.7782 </s> -0.3010
-0.7782 <s> -0.2218
-1.2553 比 -0.2218
-1.2553 罗 -0.2218
-1.2553 罗比 -0.2218

\2-grams:
-0.7782 <s> 比 0.0000
-0.7782 <s> 罗 0.0000
-0.7782 <s> 罗比 0.0000
-0.3010 比 </s> -0.3010
-0.3010 罗 </s> -0.3010
-0.3010 罗比 </s> -0.3010

\3-grams:
-0.3010 <s> 比 </s>
-0.3010 <s> 罗 </s>
-0.3010 <s> 罗比 </s>

\end\
